Language model created by QuickLM on Mon May 25 04:56:44 EDT 2015
Copyright (c) 1996-2010 Carnegie Mellon University and Alexander I. Rudnicky

The model is in standard ARPA format, designed by Doug Paul while he was at MITRE.

The code that was used to produce this language model is available in Open Source.
Please visit http://www.speech.cs.cmu.edu/tools/ for more information

The (fixed) discount mass is 0.5. The backoffs are computed using the ratio method.
This model based on a corpus of 38 sentences and 42 words

\data\
ngram 1=42
ngram 2=78
ngram 3=41

\1-grams:
-0.7894 </s> -0.3010
-0.7894 <s> -0.2241
-2.3692 BATHROOM -0.2241
-2.3692 BEDROOM -0.2241
-2.3692 BLINDS -0.2241
-2.3692 CAR -0.2241
-2.3692 CLOSE -0.2241
-2.3692 COFFEE -0.2973
-2.3692 CURTAINS -0.2241
-2.3692 DECREASE -0.2241
-2.3692 DISHWASHER -0.2241
-2.3692 DOOR -0.2241
-2.3692 DOWN -0.2241
-2.3692 FRIDGE -0.2241
-2.3692 FRONT -0.2992
-2.3692 GARAGE -0.2241
-2.3692 HALL -0.2241
-2.3692 INCREASE -0.2241
-2.3692 KITCHEN -0.2241
-2.3692 LAUNDRY -0.2241
-2.3692 LIGHTS -0.2241
-2.3692 LIVINGROOM -0.2241
-2.3692 LOCK -0.2241
-2.0682 MACHINE -0.2241
-2.3692 OFF -0.2241
-2.3692 ON -0.2241
-2.3692 OPEN -0.2241
-2.3692 OVEN -0.2241
-2.3692 PAUSE -0.2241
-2.3692 PORT -0.2241
-2.3692 POWER -0.2241
-2.3692 RADIO -0.2241
-2.3692 SPEAKER -0.2241
-2.3692 START -0.2241
-2.3692 STOP -0.2241
-2.3692 STOVE -0.2241
-2.3692 TEMPERATURE -0.2241
-2.3692 TV -0.2241
-2.3692 UNLOCK -0.2241
-2.3692 UP -0.2241
-2.3692 VOLUME -0.2241
-2.3692 WASHING -0.2973

\2-grams:
-1.8808 <s> BATHROOM 0.0000
-1.8808 <s> BEDROOM 0.0000
-1.8808 <s> BLINDS 0.0000
-1.8808 <s> CAR 0.0000
-1.8808 <s> CLOSE 0.0000
-1.8808 <s> COFFEE 0.0000
-1.8808 <s> CURTAINS 0.0000
-1.8808 <s> DECREASE 0.0000
-1.8808 <s> DISHWASHER 0.0000
-1.8808 <s> DOWN 0.0000
-1.8808 <s> FRIDGE 0.0000
-1.8808 <s> FRONT 0.0000
-1.8808 <s> GARAGE 0.0000
-1.8808 <s> HALL 0.0000
-1.8808 <s> INCREASE 0.0000
-1.8808 <s> KITCHEN 0.0000
-1.8808 <s> LAUNDRY 0.0000
-1.8808 <s> LIGHTS 0.0000
-1.8808 <s> LIVINGROOM 0.0000
-1.8808 <s> LOCK 0.0000
-1.8808 <s> OFF 0.0000
-1.8808 <s> ON 0.0000
-1.8808 <s> OPEN 0.0000
-1.8808 <s> OVEN 0.0000
-1.8808 <s> PAUSE 0.0000
-1.8808 <s> PORT 0.0000
-1.8808 <s> POWER 0.0000
-1.8808 <s> RADIO 0.0000
-1.8808 <s> SPEAKER 0.0000
-1.8808 <s> START 0.0000
-1.8808 <s> STOP 0.0000
-1.8808 <s> STOVE 0.0000
-1.8808 <s> TEMPERATURE 0.0000
-1.8808 <s> TV 0.0000
-1.8808 <s> UNLOCK 0.0000
-1.8808 <s> UP 0.0000
-1.8808 <s> VOLUME 0.0000
-1.8808 <s> WASHING 0.0000
-0.3010 BATHROOM </s> -0.3010
-0.3010 BEDROOM </s> -0.3010
-0.3010 BLINDS </s> -0.3010
-0.3010 CAR </s> -0.3010
-0.3010 CLOSE </s> -0.3010
-0.3010 COFFEE MACHINE 0.0000
-0.3010 CURTAINS </s> -0.3010
-0.3010 DECREASE </s> -0.3010
-0.3010 DISHWASHER </s> -0.3010
-0.3010 DOOR </s> -0.3010
-0.3010 DOWN </s> -0.3010
-0.3010 FRIDGE </s> -0.3010
-0.3010 FRONT DOOR 0.0000
-0.3010 GARAGE </s> -0.3010
-0.3010 HALL </s> -0.3010
-0.3010 INCREASE </s> -0.3010
-0.3010 KITCHEN </s> -0.3010
-0.3010 LAUNDRY </s> -0.3010
-0.3010 LIGHTS </s> -0.3010
-0.3010 LIVINGROOM </s> -0.3010
-0.3010 LOCK </s> -0.3010
-0.3010 MACHINE </s> -0.3010
-0.3010 OFF </s> -0.3010
-0.3010 ON </s> -0.3010
-0.3010 OPEN </s> -0.3010
-0.3010 OVEN </s> -0.3010
-0.3010 PAUSE </s> -0.3010
-0.3010 PORT </s> -0.3010
-0.3010 POWER </s> -0.3010
-0.3010 RADIO </s> -0.3010
-0.3010 SPEAKER </s> -0.3010
-0.3010 START </s> -0.3010
-0.3010 STOP </s> -0.3010
-0.3010 STOVE </s> -0.3010
-0.3010 TEMPERATURE </s> -0.3010
-0.3010 TV </s> -0.3010
-0.3010 UNLOCK </s> -0.3010
-0.3010 UP </s> -0.3010
-0.3010 VOLUME </s> -0.3010
-0.3010 WASHING MACHINE 0.0000

\3-grams:
-0.3010 <s> BATHROOM </s>
-0.3010 <s> BEDROOM </s>
-0.3010 <s> BLINDS </s>
-0.3010 <s> CAR </s>
-0.3010 <s> CLOSE </s>
-0.3010 <s> COFFEE MACHINE
-0.3010 <s> CURTAINS </s>
-0.3010 <s> DECREASE </s>
-0.3010 <s> DISHWASHER </s>
-0.3010 <s> DOWN </s>
-0.3010 <s> FRIDGE </s>
-0.3010 <s> FRONT DOOR
-0.3010 <s> GARAGE </s>
-0.3010 <s> HALL </s>
-0.3010 <s> INCREASE </s>
-0.3010 <s> KITCHEN </s>
-0.3010 <s> LAUNDRY </s>
-0.3010 <s> LIGHTS </s>
-0.3010 <s> LIVINGROOM </s>
-0.3010 <s> LOCK </s>
-0.3010 <s> OFF </s>
-0.3010 <s> ON </s>
-0.3010 <s> OPEN </s>
-0.3010 <s> OVEN </s>
-0.3010 <s> PAUSE </s>
-0.3010 <s> PORT </s>
-0.3010 <s> POWER </s>
-0.3010 <s> RADIO </s>
-0.3010 <s> SPEAKER </s>
-0.3010 <s> START </s>
-0.3010 <s> STOP </s>
-0.3010 <s> STOVE </s>
-0.3010 <s> TEMPERATURE </s>
-0.3010 <s> TV </s>
-0.3010 <s> UNLOCK </s>
-0.3010 <s> UP </s>
-0.3010 <s> VOLUME </s>
-0.3010 <s> WASHING MACHINE
-0.3010 COFFEE MACHINE </s>
-0.3010 FRONT DOOR </s>
-0.3010 WASHING MACHINE </s>

\end\
